%YAML:1.0
---
opencv_ml_svm:
   format: 3
   svmType: C_SVC
   kernel:
      type: LINEAR
   C: 30.
   term_criteria: { epsilon:1.1920928955078125e-07, iterations:1000 }
   var_count: 64
   class_count: 3
   class_labels: !!opencv-matrix
      rows: 3
      cols: 1
      dt: i
      data: [ 0, 1, 2 ]
   sv_total: 3
   support_vectors:
      - [ 1.40985563e-07, 6.30032559e-08, 6.73235618e-08, 6.78510830e-08,
          8.18786816e-08, 2.92186293e-08, 2.27522747e-08, 3.67406394e-09,
          3.07245251e-08, 2.71688805e-08, 3.05118419e-08, 2.80739396e-08,
          1.42241703e-07, 1.20662833e-07, 1.23373454e-07, 9.84198678e-08,
          -1.78716064e-08, 5.43974863e-07, 9.00532712e-07,
          2.03805644e-06, 2.06450045e-06, 1.10251506e-06, 6.96964491e-07,
          -1.34636593e-07, 6.27730628e-07, 6.25372081e-07,
          7.76194270e-07, 1.51637653e-06, 3.12420752e-06, 8.58455451e-07,
          4.71016392e-07, 3.54881450e-07, -8.90025376e-07,
          -4.13377307e-07, -1.48247793e-07, 5.65245159e-07,
          -9.97176031e-09, 7.57347181e-08, -4.39213920e-07,
          -7.10096913e-07, -8.95242124e-07, -2.91686195e-08,
          1.40804855e-06, 1.77811830e-06, -1.97145638e-07,
          1.12286180e-07, 3.28696359e-07, -4.03624284e-07,
          6.03493959e-07, 7.47815136e-07, -2.56455792e-06,
          2.56721864e-06, 5.73529223e-06, 1.01642229e-06,
          -1.70007593e-06, 1.95813459e-06, 4.65430162e-07,
          4.69138013e-06, -4.69507398e-07, -4.78610309e-06,
          -1.50972971e-06, 1.21891401e-06, -2.92441177e-06,
          1.08691587e-07 ]
      - [ 6.98711844e-08, 2.51720707e-08, 2.61534439e-08, 2.14667217e-08,
          3.62225023e-08, 1.56312403e-08, 1.25571678e-08, 2.44875009e-09,
          -8.51023962e-09, -9.00931951e-08, -3.80915139e-08,
          -2.23448620e-08, 3.97456787e-08, 6.03934396e-08,
          7.57450280e-08, 4.83713301e-08, 2.85872829e-07, 4.07185063e-10,
          5.07122628e-08, 5.38830022e-07, 2.44249122e-06, 2.65241215e-06,
          8.42054419e-07, 8.46528849e-07, 8.88963541e-07, 4.68277705e-07,
          1.78241820e-07, 6.33225284e-07, 1.74142042e-06, 1.86477689e-06,
          9.85779138e-07, 4.00230476e-07, 8.95896690e-08, 4.63651162e-07,
          5.88726834e-07, 8.26192945e-07, 7.64087815e-07, 8.36196307e-07,
          4.40819946e-07, -5.23385495e-08, -3.55306071e-07,
          5.14451756e-07, 5.87579450e-07, 2.77204367e-06, 2.10949474e-06,
          -3.49965887e-07, -1.49671905e-07, -2.49051055e-07,
          -4.42305736e-06, -3.29215686e-06, -3.48846106e-06,
          -9.80924710e-07, -1.18599087e-06, 4.64891798e-07,
          -1.52779614e-06, 3.77240394e-06, 3.23049858e-06,
          2.82663132e-06, 3.64802509e-06, 8.20049877e-07,
          -9.84282238e-08, 1.75445496e-06, 1.55731448e-06,
          -1.34944841e-07 ]
      - [ -1.15258878e-08, -1.32453879e-08, -5.43492140e-09,
          -4.34680558e-08, -4.19256622e-07, -1.90796108e-08,
          -7.14657666e-09, -7.60934604e-09, -1.80892190e-08,
          -1.30033717e-08, -4.83654254e-08, -9.72489218e-08,
          -8.48834247e-08, -7.10754833e-09, -6.70450007e-09,
          -9.25267329e-09, -1.86892777e-07, -2.96686522e-07,
          -3.54765348e-07, -5.75629770e-07, -1.13588828e-06,
          -2.81087807e-07, -2.35439401e-07, -1.47610066e-07,
          -2.23236114e-07, -4.56567420e-07, -8.46688977e-07,
          -8.82549557e-07, -5.61851664e-07, 2.38329093e-07,
          3.20701332e-07, 2.51819134e-08, -1.61309617e-06,
          -7.27358213e-07, -4.24408512e-07, -9.36184392e-07,
          -1.90376704e-06, -1.53715064e-06, -9.95921141e-07,
          -3.55199489e-07, -4.84480893e-07, -2.62895163e-08,
          3.40754042e-07, -1.23651773e-07, 5.12791928e-07,
          4.45093150e-07, -3.48194050e-07, -2.53382012e-07,
          -4.12843701e-06, -4.30902037e-06, -1.81654934e-06,
          -1.41118142e-06, -5.80841379e-06, -1.43486102e-06,
          1.04677042e-06, 2.28921613e-06, 1.46161221e-06, 6.22657808e-07,
          2.45992601e-06, 2.13435055e-06, 2.25305212e-06, 2.11253746e-06,
          1.83774148e-06, 9.37351672e-07 ]
   uncompressed_sv_total: 26
   uncompressed_support_vectors:
      - [ 0., 0., 0., 0., 0., 0., 0., 0., 0., 1.27279215e+01, 0., 0.,
          18., 0., 0., 0., 3.22595566e+04, 1.95671855e+04,
          1.51181934e+04, 1.37452803e+04, 3.50499219e+04, 1.64294238e+04,
          2.70266563e+04, 4.51482461e+04, 3.19470078e+04, 2.83908496e+04,
          2.92796211e+04, 3.29331641e+04, 4.00225313e+04, 2.24444902e+04,
          2.34069902e+04, 2.69085039e+04, 8.10525391e+04, 4.38189023e+04,
          4.09213281e+04, 3.16726543e+04, 4.67241836e+04, 3.75174297e+04,
          4.60983438e+04, 5.20465781e+04, 8.23573672e+04, 5.33045664e+04,
          5.78244023e+04, 8.97959375e+04, 9.76265938e+04, 5.01910547e+04,
          3.66364883e+04, 4.95989961e+04, 7.06104375e+05, 6.96620438e+05,
          7.99884813e+05, 1.06407825e+06, 1246068., 1.04403225e+06,
          7.56815313e+05, 6.47203938e+05, 7.76116063e+05, 8.88303813e+05,
          1.05731475e+06, 1.47939238e+06, 1.70157088e+06, 1.20806038e+06,
          8.59039750e+05, 6.91613750e+05 ]
      - [ 0., 0., 0., 0., 0., 0., 0., 0., 0., 0., 0., 0., 0., 0., 0., 0.,
          1.12162227e+04, 5.87075879e+03, 9.20373438e+03, 1.29625703e+04,
          5.64870195e+04, 3.48188086e+04, 1.11822803e+04, 1.69786758e+04,
          1.48916279e+04, 9.38233301e+03, 9.04848242e+03, 1.06761104e+04,
          4.13475352e+04, 5.36778555e+04, 2.93806758e+04, 1.15764834e+04,
          5.35753076e+03, 8.77321930e+01, 0., 0., 0., 0., 0.,
          3.72165527e+01, 5.58533643e+03, 1.55700699e+02, 8.60232544e+00,
          1.02333460e+01, 7.09901953e+00, 2.20490513e+01, 3.56694717e+01,
          2.36536514e+02, 6.83809125e+05, 6.93418688e+05, 8.90132188e+05,
          1.18461825e+06, 1.52405950e+06, 1.00494119e+06, 8.50310375e+05,
          7.59072438e+05, 7.87720125e+05, 8.07003313e+05, 1.37336938e+06,
          1.53928450e+06, 1.60601213e+06, 1.06755950e+06, 1141438.,
          7.67985875e+05 ]
      - [ 0., 0., 0., 0., 0., 0., 0., 0., 0., 0., 0., 0., 0., 0., 0., 0.,
          9.00100281e+02, 8.38855652e+02, 4.95348419e+02, 1.09225610e+03,
          6.30221289e+03, 4.10388721e+03, 1.74043286e+03, 1.63393262e+03,
          4.66665332e+03, 4.72514160e+03, 2.75230566e+03, 5.10117480e+03,
          5.44062402e+03, 8.75527222e+02, 1.34539844e+03, 1.14806409e+03,
          7.16803741e+01, 1.32940567e+02, 2.06088821e+02, 1.16515755e+02,
          1.17639175e+02, 1.37760117e+02, 1.41563370e+02, 1.60115448e+02,
          2.10146606e+02, 2.19164490e+02, 1.19718103e+03, 1.05615488e+04,
          1.02074385e+04, 1.51464783e+03, 2.21847504e+02, 1.40891113e+02,
          2.35015250e+05, 2.67602250e+05, 2.65601313e+05, 4.04488313e+05,
          460573., 2.95852281e+05, 2.93488531e+05, 2.31192563e+05,
          2.69064813e+05, 3.12811906e+05, 3.37786781e+05, 5.84278063e+05,
          638603., 3.57705906e+05, 2.91139438e+05, 2.09258359e+05 ]
      - [ 0., 0., 0., 0., 0., 0., 0., 0., 0., 0., 0., 0., 0., 0., 0., 0.,
          6.24406250e+03, 5.14839844e+03, 3.80992188e+03, 4.66567676e+03,
          1.18906582e+04, 5.23873682e+03, 4.68397363e+03, 3.32153979e+03,
          4.10324951e+03, 5.19991211e+03, 8.50626855e+03, 1.28470566e+04,
          2.77958574e+04, 1.43950137e+04, 1.35926172e+04, 8.27329004e+03,
          9.87965332e+03, 5.43406055e+03, 6.07002148e+03, 7.16177197e+03,
          1.03735518e+04, 9.17343457e+03, 1.19955859e+04, 1.03179326e+04,
          2.17455117e+04, 1.50858496e+04, 2.32188906e+04, 2.46350898e+04,
          5.36755625e+04, 2.99309609e+04, 7.62069434e+03, 5.25664404e+03,
          4.10359906e+05, 3.97253250e+05, 3.92544563e+05, 545419.,
          7.24197250e+05, 5.51286938e+05, 5.47380313e+05, 4.35251625e+05,
          4.92933250e+05, 5.45626438e+05, 5.65536188e+05, 7.26766750e+05,
          8.70383938e+05, 6.18973125e+05, 4.89224469e+05, 3.83089219e+05 ]
      - [ 0., 7.73302536e+01, 1.65529461e+01, 4.96737061e+01, 0.,
          1.72046509e+01, 5.88634968e+00, 9.05538559e+00, 4.47778516e+03,
          1.98563359e+04, 7.25306250e+03, 1.37285675e+02, 7.29795227e+01,
          9.38645248e+01, 5.91368561e+01, 2.15870323e+01, 1.05450889e+04,
          1.04227344e+04, 2.08144863e+04, 2.81736094e+04, 7.72644922e+04,
          4.43918945e+04, 2.08047559e+04, 7.19411328e+03, 8.84520703e+03,
          1.67501484e+04, 2.00753516e+04, 3.44006992e+04, 1.04984297e+05,
          4.53166016e+04, 1.51549697e+04, 9.87687598e+03, 1.85051230e+04,
          7.34561377e+03, 8.11807471e+03, 1.17866943e+04, 1.29284209e+04,
          2.16671484e+04, 1.09037461e+04, 7.76534668e+03, 2.38562500e+04,
          1.51357666e+04, 7.89288203e+04, 4.11394805e+04, 88199.,
          7.78900469e+04, 1.56075273e+04, 6.28695215e+03, 3.60958844e+05,
          3.71420313e+05, 5.66989938e+05, 1.42007463e+06, 3.15548475e+06,
          2.22107650e+06, 8.79265438e+05, 4.34865625e+05, 3.54837781e+05,
          3.88108531e+05, 5.83141313e+05, 1.36215025e+06, 3.18312725e+06,
          2504186., 9.03845750e+05, 3.96783438e+05 ]
      - [ 0., 0., 0., 0., 0., 0., 0., 0., 0., 0., 0., 0., 0., 0., 0., 0.,
          1.86255527e+04, 1.71215371e+04, 2.03449805e+04, 2.61220371e+04,
          3.35335234e+04, 2.47295273e+04, 2.60481445e+04, 1.93157793e+04,
          1.94741367e+04, 2.43858027e+04, 2.49779277e+04, 3.57950078e+04,
          5.23997930e+04, 2.82008945e+04, 3.62455078e+04, 2.46966738e+04,
          0., 0., 0., 0., 0., 0., 0., 0., 0., 0., 0., 0., 0., 0., 0., 0.,
          8.92616500e+05, 8.95598563e+05, 1.07678275e+06, 1.98943450e+06,
          2684974., 1.65472925e+06, 1.16402775e+06, 8.38285688e+05,
          8.59140125e+05, 9.47245438e+05, 1.25744213e+06, 2.60054350e+06,
          3.26504625e+06, 1747534., 1.17509638e+06, 9.09355875e+05 ]
      - [ 0., 0., 0., 0., 0., 0., 0., 0., 0., 0., 0., 0., 0., 0., 0., 0.,
          1.56382334e+04, 1.16796484e+04, 1.25420781e+04, 1.89804258e+04,
          6.25130742e+04, 4.81265938e+04, 1.95582676e+04, 1.14899600e+04,
          1.02223633e+04, 1.42700840e+04, 1.87368145e+04, 3.74273828e+04,
          8.57733359e+04, 4.74611055e+04, 1.93906523e+04, 1.83229902e+04,
          0., 0., 0., 0., 0., 0., 0., 0., 0., 0., 0., 0., 0., 0., 0., 0.,
          5.74671125e+05, 6.26801813e+05, 9.40263625e+05, 2.03618075e+06,
          3.35749575e+06, 1.85142713e+06, 9.93693063e+05, 6.13677813e+05,
          5.83183563e+05, 6.80232063e+05, 1.08257713e+06, 2.54665150e+06,
          4.20461650e+06, 2.23371950e+06, 1.01580494e+06, 6.44820500e+05 ]
      - [ 0., 0., 0., 0., 0., 0., 0., 0., 0., 0., 0., 0., 0., 0., 0., 0.,
          2.95586309e+04, 1.90314414e+04, 1.03122939e+04, 7.48811279e+03,
          1.57961299e+04, 7.73706934e+03, 8.68259082e+03, 9.83033887e+03,
          2.23665664e+04, 3.10069141e+04, 3.27047461e+04, 1.52603330e+04,
          2.67473750e+04, 1.34350869e+04, 1.12127998e+04, 1.08049600e+04,
          0., 0., 0., 0., 0., 0., 0., 0., 0., 0., 0., 0., 0., 0., 0., 0.,
          1.21098725e+06, 1.38517738e+06, 1115162., 9.34016438e+05,
          8.85438063e+05, 6.12769938e+05, 5.72485813e+05, 6.05449563e+05,
          1.06428450e+06, 1.62047225e+06, 1.59307225e+06, 1.50618375e+06,
          1.40601450e+06, 8.06332625e+05, 7.01656438e+05, 757596. ]
      - [ 0., 1.53270660e+02, 4.47213602e+00, 1.41421366e+01, 0., 0.,
          1.41421354e+00, 6.52503662e+01, 1.20218292e+02, 7.89545776e+02,
          7.17096045e+03, 1.51007979e+04, 1.18709297e+04, 2.98283051e+02,
          1.16260063e+02, 0., 1.37495283e+04, 1.62034463e+04,
          2.33468320e+04, 4.35837773e+04, 7.79175000e+04, 3.06857617e+04,
          1.81014922e+04, 1.24921465e+04, 1.30614268e+04, 2.03730879e+04,
          2.69393145e+04, 5.63669688e+04, 7.11165625e+04, 3.64251172e+04,
          1.40207383e+04, 1.39884453e+04, 1.51116904e+04, 9.04326758e+03,
          1.26098965e+04, 1.43596855e+04, 9.55326172e+03, 9.82489453e+03,
          1.42659482e+04, 1.01743896e+04, 1.50546719e+04, 1.49996543e+04,
          2.80187910e+04, 6.21852813e+04, 5.60873203e+04, 3.48544219e+04,
          2.70730547e+04, 1.65896289e+04, 8.19703938e+05, 1.00104031e+06,
          1.22974163e+06, 1.82761250e+06, 1.79448463e+06, 9.64694375e+05,
          7.39307375e+05, 6.61104938e+05, 7.84716938e+05, 981050.,
          1.37103175e+06, 2.17434275e+06, 2273053., 1.48260575e+06,
          9.54954813e+05, 7.32096813e+05 ]
      - [ 38., 0., 0., 1.10455701e+03, 1.32430430e+04, 2.09901840e+02,
          0., 0., 216., 0., 0., 0., 0., 0., 0., 0., 1.36856030e+03,
          2.58849561e+03, 3.60917603e+03, 1.07206768e+04, 3.75803633e+04,
          1.18964980e+04, 5.57035352e+03, 4.07071094e+03, 5.21571729e+03,
          9.66734375e+03, 2.31268594e+04, 2.92615098e+04, 3.71329570e+04,
          8.21182129e+03, 3.24015356e+03, 1.64129285e+03, 4.34520234e+04,
          1.51664512e+04, 3.89707642e+03, 1.69512539e+04, 4.66476914e+04,
          4.14696055e+04, 3.36911563e+04, 1.54950313e+04, 2.65674199e+04,
          8.87614648e+03, 4.02975146e+03, 6.53527246e+03, 1.13149268e+04,
          1.22169541e+04, 5.92956787e+03, 2.33284546e+03, 2.43078594e+05,
          1.84036563e+05, 1.56146281e+05, 3.35226094e+05, 7.66336500e+05,
          5.02058688e+05, 4.17457406e+05, 2.59054172e+05, 2.86604281e+05,
          2.91865844e+05, 3.29915688e+05, 4.78481219e+05, 6.22982500e+05,
          3.80182781e+05, 2.63453625e+05, 1.36296469e+05 ]
      - [ 4.92648041e+02, 5.93088684e+02, 5.86750732e+02, 7.67561035e+02,
          6.66410645e+02, 4.96052612e+02, 3.19882477e+02, 5.69085022e+02,
          4.96367371e+02, 3.07657074e+02, 4.36103790e+02, 4.97432648e+02,
          6.90731079e+02, 3.33024109e+02, 3.07922729e+02, 2.28973633e+02,
          2.38847617e+04, 2.39921680e+04, 1.67626328e+04, 1.49992275e+04,
          2.85312832e+04, 1.42340771e+04, 1.92554414e+04, 2.48822676e+04,
          2.89907891e+04, 2.46849746e+04, 1.72060273e+04, 1.36770791e+04,
          2.20615586e+04, 1.21618496e+04, 1.22291992e+04, 1.79159531e+04,
          2.25201582e+04, 1.65772109e+04, 1.61892871e+04, 1.78964961e+04,
          1.99046777e+04, 1.56443301e+04, 1.71984844e+04, 1.66829434e+04,
          2.22937852e+04, 1.44010010e+04, 1.35920273e+04, 1.35043457e+04,
          1.25012676e+04, 1.23044941e+04, 1.31708076e+04, 1.25229258e+04,
          1.01506450e+06, 7.66416125e+05, 5.51512625e+05, 5.43171688e+05,
          644683., 6.89537563e+05, 1.00229131e+06, 1.11030875e+06,
          1.04546250e+06, 7.38159313e+05, 5.02346281e+05, 4.38274625e+05,
          4.90022156e+05, 5.17586563e+05, 8.15817188e+05, 1.00613594e+06 ]
      - [ 4.77103882e+02, 6.09217163e+02, 2.07772797e+02, 4.16858032e+02,
          5.75053040e+02, 7.01058044e+02, 3.93584625e+02, 3.93598785e+02,
          5.83807617e+02, 4.55460022e+02, 2.41609787e+02, 2.58225403e+02,
          6.66885498e+02, 2.88647797e+02, 3.13648560e+02, 4.83275330e+02,
          1.39401113e+04, 1.43475342e+04, 1.36229385e+04, 1.18965000e+04,
          2.02450527e+04, 1.06061611e+04, 1.11463525e+04, 8.83462109e+03,
          1.02635146e+04, 1.10050137e+04, 9.27660254e+03, 1.12526182e+04,
          2.17317930e+04, 1.25119941e+04, 1.36105459e+04, 1.24682100e+04,
          2.48922695e+04, 1.76490176e+04, 1.81171738e+04, 2.16782383e+04,
          3.01658008e+04, 2.47455898e+04, 1.74938789e+04, 1.08038994e+04,
          1.87016953e+04, 9.18104883e+03, 6.74927100e+03, 6.82549756e+03,
          8.24401563e+03, 8.04058545e+03, 1.17913281e+04, 1.21851816e+04,
          5.64377125e+05, 5.48535750e+05, 4.80722063e+05, 5.21749438e+05,
          6.25584938e+05, 5.47193813e+05, 6.02948500e+05, 4.80492656e+05,
          489453., 4.74580594e+05, 4.32257844e+05, 4.79440250e+05,
          6.01425500e+05, 5.58386188e+05, 6.70964688e+05, 5.60595125e+05 ]
      - [ 0., 0., 0., 0., 0., 0., 0., 0., 0., 0., 0., 0., 0., 0., 0., 0.,
          1.85331953e+04, 2.26679355e+04, 1.97203223e+04, 1.89017520e+04,
          2.89096641e+04, 1.29595078e+04, 1.53394922e+04, 1.47557695e+04,
          1.90252617e+04, 2.56775723e+04, 3.98844453e+04, 31817.,
          3.91049883e+04, 1.66948164e+04, 1.77217305e+04, 1.76091445e+04,
          3.73462227e+04, 1.20545801e+04, 8.66944238e+03, 8.40757520e+03,
          8.20871094e+03, 8.07348096e+03, 1.57488506e+04, 1.88116973e+04,
          3.95077695e+04, 3.27306660e+04, 6.41790859e+04, 1.23695938e+05,
          7.49003359e+04, 6.35396094e+04, 3.28031133e+04, 2.91666738e+04,
          8.01334625e+05, 9.77064313e+05, 1.15438938e+06, 1.24062438e+06,
          1.05049363e+06, 7.39199625e+05, 6.78239438e+05, 6.51356563e+05,
          8.32150500e+05, 1.06400113e+06, 1.31287063e+06, 1453818.,
          1.16562625e+06, 8.25969625e+05, 7.62056500e+05, 6.78559938e+05 ]
      - [ 4.41459137e+02, 2.91240448e+02, 3.83423096e+02, 4.07047607e+02,
          1.84756500e+02, 2.19788685e+01, 2.26274166e+01, 1.14235744e+01,
          6.24946442e+01, 1.27279215e+01, 5.83095169e+00, 6.32455540e+00,
          56., 1.92776775e+01, 9.40076141e+01, 1.87937851e+02,
          1.14194170e+04, 1.18417803e+04, 1.04311260e+04, 8.39393262e+03,
          9.96156641e+03, 3.35112280e+03, 4.33510303e+03, 4.33550879e+03,
          7.25755273e+03, 1.11602588e+04, 3.67914219e+04, 1.41931113e+04,
          1.71580664e+04, 5.85350977e+03, 8.04120850e+03, 8.31355762e+03,
          3.52927461e+04, 2.27907676e+04, 4.63237500e+04, 7.22890156e+04,
          1.00338406e+05, 4.83650625e+04, 2.48046035e+04, 1.63421748e+04,
          4.53691563e+04, 3.43339414e+04, 7.20934609e+04, 1.72587266e+05,
          3.25682438e+05, 5.11132344e+04, 2.46478613e+04, 1.37463936e+04,
          4.66267781e+05, 5.19751125e+05, 6.32807375e+05, 8.34914563e+05,
          1.10415913e+06, 7.13079813e+05, 5.36404563e+05, 4.35547781e+05,
          4.89033625e+05, 5.81737438e+05, 6.40864688e+05, 1.04497944e+06,
          1.28774013e+06, 7.76371938e+05, 5.63152625e+05, 4.40878563e+05 ]
      - [ 0., 0., 0., 0., 0., 0., 0., 0., 0., 0., 0., 0., 2., 0.,
          1.41421354e+00, 0., 2.11606797e+04, 1.97779414e+04,
          2.28788613e+04, 2.72051563e+04, 2.91375332e+04, 1.18142031e+04,
          1.05418887e+04, 1.12654375e+04, 1.57173545e+04, 2.18779844e+04,
          3.81644531e+04, 3.90471250e+04, 3.71470430e+04, 1.56470342e+04,
          1.83113184e+04, 1.78990352e+04, 3.76678320e+04, 1.90779473e+04,
          7.37202344e+03, 6.63486768e+03, 1.17878037e+04, 1.28267773e+04,
          2.12236934e+04, 2.95249258e+04, 4.25810703e+04, 2.67675273e+04,
          4.52411953e+04, 8.07325938e+04, 5.54882695e+04, 3.02327754e+04,
          2.37994941e+04, 2.01292129e+04, 1.02085056e+06, 9.68265188e+05,
          8.65843938e+05, 952624., 9.86769125e+05, 8.46443563e+05,
          9.10632625e+05, 9.36345250e+05, 1.07732775e+06, 9.62102625e+05,
          9.13526938e+05, 9.15345063e+05, 8.99937188e+05, 8.11168188e+05,
          9.30581250e+05, 9.42479875e+05 ]
      - [ 1.47589096e+02, 1.68089920e+02, 2.40329407e+02, 6.29345154e+02,
          8.18474670e+02, 1.38550934e+02, 4.30580788e+01, 4.53457336e+01,
          6.36312866e+01, 7.89518127e+01, 0., 1.62920288e+02,
          1.43606812e+02, 1.07505058e+02, 1.91738281e+02, 7.16677780e+01,
          1.12993477e+04, 1.01032275e+04, 1.10327676e+04, 1.51245010e+04,
          2.15214141e+04, 7.98766992e+03, 8.64886816e+03, 5.01069824e+03,
          5.71485107e+03, 7.20983789e+03, 1.20288398e+04, 3.19042891e+04,
          3.83350391e+04, 1.36857217e+04, 1.15421621e+04, 8.87209473e+03,
          9.72457813e+04, 5.11957852e+04, 3.46695508e+04, 3.01437207e+04,
          4.12144844e+04, 3.06467891e+04, 5.38393438e+04, 5.80405703e+04,
          1.32503125e+05, 6.88242578e+04, 7.75273438e+04, 1.54188781e+05,
          2.20848281e+05, 8.85528828e+04, 7.29806953e+04, 6.82691328e+04,
          6.02168188e+05, 5.72022063e+05, 6.19589500e+05, 8.63492063e+05,
          1.20048675e+06, 9.46238250e+05, 7.67448750e+05, 5.84310063e+05,
          6.08609938e+05, 6.25327500e+05, 6.81190750e+05, 9.15255688e+05,
          1285180., 9.96019688e+05, 8.08237938e+05, 6.06973688e+05 ]
      - [ 3.31441895e+02, 3.84079773e+02, 2.42886688e+02, 3.65642487e+02,
          4.43335632e+02, 5.95561905e+01, 3.58143311e+01, 2.60094280e+01,
          64., 2.54558449e+01, 5.83095169e+00, 6.32455540e+00,
          3.33603172e+01, 1.88730049e+01, 6.19632530e+01, 9.69533615e+01,
          1.11919395e+04, 1.75903027e+04, 1.56473340e+04, 1.42673906e+04,
          1.89459277e+04, 4.76766602e+03, 5.55262598e+03, 4.93429102e+03,
          5.97543213e+03, 1.08079707e+04, 2.00439531e+04, 3.37222695e+04,
          3.18039355e+04, 1.05083193e+04, 1.03987441e+04, 8.64733691e+03,
          9.62197500e+04, 5.70290078e+04, 3.34129883e+04, 3.71406484e+04,
          3.28858359e+04, 2.86435547e+04, 2.95598379e+04, 3.81993477e+04,
          1.12696156e+05, 7.07148047e+04, 8.14455859e+04, 1.04512305e+05,
          1.78085594e+05, 4.91091289e+04, 5.28364336e+04, 5.17251289e+04,
          4.56540969e+05, 5.87446625e+05, 6.87730313e+05, 9.76921813e+05,
          9.30532500e+05, 4.68429531e+05, 3.77647938e+05, 3.09077750e+05,
          4.67599281e+05, 6.33010250e+05, 8.70289750e+05, 1.14816213e+06,
          1.16411425e+06, 5.38702125e+05, 4.42596406e+05, 3.72193188e+05 ]
      - [ 6.19416406e+03, 3.28729102e+03, 3.58021973e+03, 3.43513672e+03,
          3.63588330e+03, 1.33799963e+03, 9.79405029e+02, 6.04377251e+01,
          1.55395093e+03, 1.33916992e+03, 1.50550659e+03, 1.30511426e+03,
          5.32403467e+03, 3.47540210e+03, 3.67604761e+03, 4.09522290e+03,
          2.19584023e+04, 2.01407695e+04, 1.55572715e+04, 2.57641465e+04,
          5.13502305e+04, 3.53686641e+04, 2.71071797e+04, 2.22131367e+04,
          2.45711074e+04, 2.89499453e+04, 2.96889805e+04, 3.49739023e+04,
          6.02472422e+04, 3.38585586e+04, 3.12039355e+04, 2.33802207e+04,
          3.58029805e+04, 1.78651113e+04, 1.51067510e+04, 9.57797461e+03,
          1.11027334e+04, 1.00689141e+04, 1.47925059e+04, 2.28211387e+04,
          3.23488750e+04, 2.85640410e+04, 3.96876758e+04, 7.90900156e+04,
          6.15736133e+04, 3.67723008e+04, 2.79120742e+04, 2.10515762e+04,
          6.91048125e+05, 7.06174938e+05, 7.79154875e+05, 1.31280750e+06,
          1.92831950e+06, 1.40037238e+06, 8.60211500e+05, 6.22834313e+05,
          6.93939938e+05, 7.87731688e+05, 1.07198225e+06, 1.72643163e+06,
          2.51165875e+06, 1.76609750e+06, 1.11672375e+06, 7.13495375e+05 ]
      - [ 0., 0., 0., 0., 0., 0., 4.24264050e+00, 0., 6., 4.24264050e+00,
          0., 0., 0., 0., 0., 0., 1.58054785e+04, 1.23235635e+04,
          1.13850439e+04, 2.36610645e+04, 7.56037578e+04, 8.04923047e+04,
          3.13384219e+04, 2.12147734e+04, 2.46035098e+04, 2.68670371e+04,
          3.21358652e+04, 4.27709961e+04, 7.84114531e+04, 5.90758242e+04,
          4.06066914e+04, 1.81293047e+04, 3.45900664e+04, 1.66265547e+04,
          1.22631455e+04, 1.23460322e+04, 1.50016543e+04, 1.80358789e+04,
          2.52015117e+04, 1.63902637e+04, 3.68254883e+04, 2.51632656e+04,
          4.84111367e+04, 1.76108906e+05, 1.74464234e+05, 5.37585234e+04,
          2.71509492e+04, 2.01781875e+04, 5.53019313e+05, 5.70898063e+05,
          7.87712125e+05, 1.54175625e+06, 2078818., 1.35032075e+06,
          8.43795063e+05, 5.88743313e+05, 6.23431813e+05, 6.95691625e+05,
          1.00675269e+06, 2.01719588e+06, 2.58116725e+06, 1.52343963e+06,
          8.63581875e+05, 5.88017625e+05 ]
      - [ 1.84214981e+02, 2.46300552e+02, 6.12032928e+01, 2.41297363e+02,
          3.36239746e+02, 8.64933395e+01, 5.27959366e+01, 2.53208038e+02,
          1.33061798e+02, 1.40839508e+02, 1.99313705e+02, 1.39326077e+01,
          2.03251373e+02, 2.14439194e+02, 3.69545197e+02, 1.74504089e+02,
          2.80536777e+04, 2.81070469e+04, 2.81032148e+04, 3.02737227e+04,
          8.71098516e+04, 5.75606328e+04, 3.55110117e+04, 3.79157773e+04,
          3.10976582e+04, 3.60783359e+04, 4.29924805e+04, 4.61029688e+04,
          9.57519063e+04, 5.03719883e+04, 3.13900762e+04, 2.86164531e+04,
          3.48920742e+04, 2.01864824e+04, 1.74901016e+04, 1.35020215e+04,
          1.86962363e+04, 2.69360684e+04, 2.34069453e+04, 2.85511875e+04,
          3.41579219e+04, 2.16235938e+04, 1.73503965e+04, 2.01976797e+04,
          2.44996855e+04, 2.45610625e+04, 2.37888457e+04, 2.19225801e+04,
          1.06083775e+06, 9.49209563e+05, 1.14654538e+06, 1.70990238e+06,
          2.00173388e+06, 1.50442388e+06, 1.19674288e+06, 1.06765713e+06,
          1.13686163e+06, 1.12729013e+06, 1.41271450e+06, 2.22771650e+06,
          2628647., 1.74751713e+06, 1.29970550e+06, 1.07311138e+06 ]
      - [ 9.91863831e+02, 2.15053146e+02, 3.23821686e+02, 7.62178650e+02,
          1.63754468e+03, 6.53679321e+02, 4.44136993e+02, 1.12941048e+02,
          2.43128494e+02, 1.14599777e+02, 1.02191292e+02, 1.79138580e+02,
          2.63214508e+02, 5.12877136e+02, 6.70649048e+02, 1.16785278e+03,
          2.18002031e+04, 2.38174082e+04, 3.14130156e+04, 4.87155313e+04,
          1.42586984e+05, 9.62446016e+04, 5.95703320e+04, 4.46017656e+04,
          5.52532852e+04, 3.72057617e+04, 4.27651875e+04, 6.05944961e+04,
          1.47455078e+05, 9.29462734e+04, 5.29370117e+04, 3.19056836e+04,
          1.26991016e+04, 5.90322363e+03, 5.26455029e+03, 7.46002686e+03,
          8.34908496e+03, 8.94911035e+03, 9.59091504e+03, 6.79445654e+03,
          1.08092217e+04, 6.31434912e+03, 6.52863184e+03, 5.67341699e+03,
          8.10600049e+03, 1.04441465e+04, 1.43951553e+04, 9.38884473e+03,
          9.54530375e+05, 6.97147438e+05, 7.44970375e+05, 1.25820925e+06,
          1.77525325e+06, 1.33036113e+06, 8.77548875e+05, 9.16135688e+05,
          1.08053763e+06, 9.16010688e+05, 1.30411750e+06, 2.00507150e+06,
          2.15606225e+06, 1.33672975e+06, 1.01917375e+06, 1.00750281e+06 ]
      - [ 4.14545898e+02, 4.00180855e+01, 0., 6.32455540e+00, 30., 0.,
          0., 0., 4., 5.65685415e+00, 2.68328171e+01, 4.55519600e+01,
          4.92313507e+02, 4.63070465e+02, 1.14950317e+03, 3.89998749e+02,
          2.82441191e+04, 2.06522266e+04, 2.64209297e+04, 3.75660547e+04,
          6.71162031e+04, 2.88482578e+04, 2.54035254e+04, 3.00387305e+04,
          3.32304023e+04, 2.59821855e+04, 2.59562754e+04, 4.42749492e+04,
          7.48289063e+04, 4.32022344e+04, 2.81378379e+04, 2.80609102e+04,
          3.85229883e+04, 2.32430977e+04, 2.80630293e+04, 4.22962305e+04,
          4.29809883e+04, 3.67129258e+04, 2.39899004e+04, 1.58936367e+04,
          3.72133906e+04, 3.63229648e+04, 6.86977344e+04, 6.16653672e+04,
          5.13816328e+04, 3.06346484e+04, 2.52511172e+04, 2.16993281e+04,
          6.62628250e+05, 6.73371188e+05, 7.87663188e+05, 9.91359938e+05,
          1.13059775e+06, 8.23457438e+05, 7.01856563e+05, 6.95680688e+05,
          6.96428750e+05, 9.21119438e+05, 1.14514475e+06, 1070498.,
          1.02493325e+06, 8.19863438e+05, 8.85853500e+05, 6.96703313e+05 ]
      - [ 2.06142136e+02, 8.94427204e+00, 0., 0., 6., 0., 0.,
          5.09901953e+00, 6., 0., 0., 8.12289581e+01, 1.70561646e+03,
          1.87128723e+03, 4.07225403e+02, 5.76007690e+01, 1.80625313e+04,
          2.48171289e+04, 3.51106758e+04, 8.12418906e+04, 8.94204141e+04,
          3.40457500e+04, 2.91792207e+04, 4.40760195e+04, 4.13651250e+04,
          3.17415645e+04, 3.73392500e+04, 5.56175625e+04, 1.14908883e+05,
          6.27543438e+04, 3.92045117e+04, 2.42280059e+04, 3.91874219e+04,
          1.56845811e+04, 2.25690254e+04, 2.88893359e+04, 2.71665684e+04,
          1.58914102e+04, 1.76575293e+04, 1.85454355e+04, 4.38568984e+04,
          2.62022520e+04, 7.38790547e+04, 1.40763625e+05, 5.72450820e+04,
          2.64409668e+04, 2.39646094e+04, 2.76513340e+04, 528688.,
          6.12653063e+05, 7.41778438e+05, 1045173., 1.16698713e+06,
          7.83253063e+05, 6.28984875e+05, 6.09104563e+05, 667086.,
          9.84256188e+05, 1.36853225e+06, 1.27495588e+06, 1.20602463e+06,
          8.89054563e+05, 7.88699750e+05, 5.89798563e+05 ]
      - [ 8.41980362e+01, 2.59210835e+01, 9.60461349e+01, 1.21886621e+03,
          5.19519531e+03, 2.22276367e+03, 6.36310608e+02, 2.20427933e+02,
          128., 0., 0., 0., 0., 0., 2.47577000e+01, 1.52970581e+01,
          3.45116523e+04, 1.67589277e+04, 1.42050898e+04, 1.70740020e+04,
          3.03501465e+04, 2.56956719e+04, 2.42322891e+04, 2.57054883e+04,
          2.91159648e+04, 1.77088320e+04, 1.40365605e+04, 2.75469746e+04,
          5.96701523e+04, 3.28772148e+04, 3.52736992e+04, 3.28343320e+04,
          1.36396875e+04, 2.79523887e+04, 1.76931953e+04, 3.52816650e+03,
          7.01765381e+03, 4.56177344e+03, 7.15529102e+03, 5.62969629e+03,
          1.61612188e+04, 5.21465078e+04, 1.49243418e+04, 1.70317617e+04,
          1.33799541e+04, 9.77924902e+03, 1.18695850e+04, 1.23479131e+04,
          1556020., 2.52787825e+06, 2431872., 1.95142438e+06,
          1.73389663e+06, 1.25072075e+06, 9.93272375e+05, 1050656.,
          1.63246125e+06, 2715619., 2.73401350e+06, 2.29751150e+06,
          2342905., 1.66470188e+06, 1.27571688e+06, 1.24376113e+06 ]
      - [ 1.67055389e+02, 1.81726700e+02, 0., 2.79562012e+02,
          1.89558044e+02, 1.26448853e+02, 2.48392868e+02, 4.45562347e+02,
          7.37080688e+02, 6.51037903e+02, 5.81528381e+02, 1.12263318e+03,
          1.13345801e+03, 4.87462006e+02, 8.57258301e+02, 7.31697617e+01,
          4.55772344e+04, 5.52745977e+04, 4.69998203e+04, 4.20093008e+04,
          7.73166172e+04, 3.42239570e+04, 2.67602246e+04, 3.89802461e+04,
          4.70122813e+04, 6.52193633e+04, 5.92344258e+04, 6.63401484e+04,
          7.71356250e+04, 3.21961465e+04, 2.74262031e+04, 2.98268613e+04,
          2.66378418e+04, 6.54224844e+04, 2.40829375e+04, 1.57235391e+04,
          1.38483369e+04, 1.08573545e+04, 1.85409707e+04, 1.57607285e+04,
          4.42469570e+04, 7.43655078e+04, 3.72288867e+04, 2.28808047e+04,
          1.36420273e+04, 1.05304863e+04, 8.43169629e+03, 1.07881885e+04,
          2.38003675e+06, 3213349., 2.52097125e+06, 2.13496825e+06,
          1.90447825e+06, 1227485., 1.14395188e+06, 1.56137575e+06,
          2.50307225e+06, 3.39198250e+06, 2676747., 2.52839475e+06,
          2.35226650e+06, 1.58089488e+06, 1.40445963e+06, 1.83479150e+06 ]
      - [ 2.58268140e+03, 1.61647446e+02, 2.29086792e+02, 5.90546150e+01,
          1.05378467e+03, 1.73138000e+02, 5.69897461e+02, 2.12338242e+02,
          1.57500244e+02, 6.12661011e+02, 3.81248688e+02, 3.36590546e+02,
          2.73355640e+03, 4.83438281e+03, 4.57858154e+03, 1.62581482e+03,
          5.92528271e+03, 6.31721045e+03, 1.49100020e+04, 8.16791602e+03,
          1.22596162e+04, 7.82912891e+03, 1.14512266e+04, 7.27906836e+03,
          1.08332490e+04, 1.13240283e+04, 1.52427520e+04, 1.05635967e+04,
          1.55432695e+04, 5.02838232e+03, 4.00272852e+03, 2.79682446e+03,
          45807., 3.02969082e+04, 3.11175703e+04, 2.67528750e+04,
          2.38036816e+04, 2.13674082e+04, 3.52625781e+04, 4.78657969e+04,
          7.31529375e+04, 5.27419180e+04, 3.11920840e+04, 2.55334316e+04,
          2.39620176e+04, 2.54466426e+04, 3.30388477e+04, 4.11446719e+04,
          9.58873375e+05, 1.09514338e+06, 1.01640181e+06, 8.32896813e+05,
          7.14649063e+05, 5.14593094e+05, 7.03057438e+05, 1.17889450e+06,
          1.51938663e+06, 1.18546275e+06, 1.10109538e+06, 1.00169419e+06,
          6.42188813e+05, 4.33583094e+05, 5.74204625e+05, 7.00681625e+05 ]
   decision_functions:
      -
         sv_count: 1
         rho: 4.6753986470120132e+00
         alpha: [ 1. ]
         index: [ 0 ]
      -
         sv_count: 1
         rho: 4.3891448941839037e+00
         alpha: [ 1. ]
         index: [ 1 ]
      -
         sv_count: 1
         rho: -8.8441566261230276e-01
         alpha: [ 1. ]
         index: [ 2 ]
